net
{
    node_size = (0 0);
}

node DEFAULTER
{
    label = "DEFAULTER";
    states = ("State_0" "State_1");
}

node DEFAULTER_TClone
{
    label = "DEFAULTER_TClone";
    states = ("State_0" "State_1");
}

node CREDITCARD
{
    label = "CREDITCARD";
    states = ("State_0" "State_1" "State_2");
}

node CREDITCARD_TClone
{
    label = "CREDITCARD_TClone";
    states = ("State_0" "State_1" "State_2");
}

node BALANCE
{
    label = "BALANCE";
    states = ("State_0" "State_1");
}

node BALANCE_TClone
{
    label = "BALANCE_TClone";
    states = ("State_0" "State_1");
}

node WITHDRAW
{
    label = "WITHDRAW";
    states = ("State_0" "State_1");
}

node WITHDRAW_TClone
{
    label = "WITHDRAW_TClone";
    states = ("State_0" "State_1");
}

node SEX
{
    label = "SEX";
    states = ("State_0" "State_1");
}

node SALARY
{
    label = "SALARY";
    states = ("State_0" "State_1");
}

node SALARY_TClone
{
    label = "SALARY_TClone";
    states = ("State_0" "State_1");
}

node SALARY_Indicator
{
    label = "SALARY_Indicator";
    states = ("State_0" "State_1");
}

node MOVEMENTS
{
    label = "MOVEMENTS";
    states = ("State_0" "State_1");
}

node MONTHLYBALANCE
{
    label = "MONTHLYBALANCE";
    states = ("State_0" "State_1");
}

node MONTHLYBALANCE_TClone
{
    label = "MONTHLYBALANCE_TClone";
    states = ("State_0" "State_1");
}

potential (DEFAULTER | DEFAULTER_TClone)
{
    data
     = (( 0.5 0.5 )	%  DEFAULTER_TClone=State_0
	( 0.5 0.5 ));	%  DEFAULTER_TClone=State_1
}

potential (DEFAULTER_TClone)
{
    data = ( 0.5 0.5 );
}

potential (CREDITCARD | CREDITCARD_TClone DEFAULTER)
{
    data
     = ((( 0.333333 0.333333 0.333333 )	%  CREDITCARD_TClone=State_0  DEFAULTER=State_0
	 ( 0.333333 0.333333 0.333333 ))	%  CREDITCARD_TClone=State_0  DEFAULTER=State_1
	(( 0.333333 0.333333 0.333333 )	%  CREDITCARD_TClone=State_1  DEFAULTER=State_0
	 ( 0.333333 0.333333 0.333333 ))	%  CREDITCARD_TClone=State_1  DEFAULTER=State_1
	(( 0.333333 0.333333 0.333333 )	%  CREDITCARD_TClone=State_2  DEFAULTER=State_0
	 ( 0.333333 0.333333 0.333333 )));	%  CREDITCARD_TClone=State_2  DEFAULTER=State_1
}

potential (CREDITCARD_TClone)
{
    data = ( 0.333333 0.333333 0.333333 );
}

potential (BALANCE | BALANCE_TClone DEFAULTER)
{
    data
     = ((( 0.5 0.5 )	%  BALANCE_TClone=State_0  DEFAULTER=State_0
	 ( 0.5 0.5 ))	%  BALANCE_TClone=State_0  DEFAULTER=State_1
	(( 0.5 0.5 )	%  BALANCE_TClone=State_1  DEFAULTER=State_0
	 ( 0.5 0.5 )));	%  BALANCE_TClone=State_1  DEFAULTER=State_1
}

potential (BALANCE_TClone)
{
    data = ( 0.5 0.5 );
}

potential (WITHDRAW | WITHDRAW_TClone DEFAULTER)
{
    data
     = ((( 0.5 0.5 )	%  WITHDRAW_TClone=State_0  DEFAULTER=State_0
	 ( 0.5 0.5 ))	%  WITHDRAW_TClone=State_0  DEFAULTER=State_1
	(( 0.5 0.5 )	%  WITHDRAW_TClone=State_1  DEFAULTER=State_0
	 ( 0.5 0.5 )));	%  WITHDRAW_TClone=State_1  DEFAULTER=State_1
}

potential (WITHDRAW_TClone)
{
    data = ( 0.5 0.5 );
}

potential (SEX | DEFAULTER)
{
    data
     = (( 0.5 0.5 )	%  DEFAULTER=State_0
	( 0.5 0.5 ));	%  DEFAULTER=State_1
}

potential (SALARY | SALARY_Indicator SALARY_TClone DEFAULTER)
{
    data
     = (((( 0.5 0.5 )	%  SALARY_Indicator=State_0  SALARY_TClone=State_0  DEFAULTER=State_0
	  ( 0.5 0.5 ))	%  SALARY_Indicator=State_0  SALARY_TClone=State_0  DEFAULTER=State_1
	 (( 0.5 0.5 )	%  SALARY_Indicator=State_0  SALARY_TClone=State_1  DEFAULTER=State_0
	  ( 0.5 0.5 )))	%  SALARY_Indicator=State_0  SALARY_TClone=State_1  DEFAULTER=State_1
	((( 0.5 0.5 )	%  SALARY_Indicator=State_1  SALARY_TClone=State_0  DEFAULTER=State_0
	  ( 0.5 0.5 ))	%  SALARY_Indicator=State_1  SALARY_TClone=State_0  DEFAULTER=State_1
	 (( 0.5 0.5 )	%  SALARY_Indicator=State_1  SALARY_TClone=State_1  DEFAULTER=State_0
	  ( 0.5 0.5 ))));	%  SALARY_Indicator=State_1  SALARY_TClone=State_1  DEFAULTER=State_1
}

potential (SALARY_TClone)
{
    data = ( 0.5 0.5 );
}

potential (SALARY_Indicator)
{
    data = ( 0.5 0.5 );
}

potential (MOVEMENTS | CREDITCARD DEFAULTER)
{
    data
     = ((( 0.5 0.5 )	%  CREDITCARD=State_0  DEFAULTER=State_0
	 ( 0.5 0.5 ))	%  CREDITCARD=State_0  DEFAULTER=State_1
	(( 0.5 0.5 )	%  CREDITCARD=State_1  DEFAULTER=State_0
	 ( 0.5 0.5 ))	%  CREDITCARD=State_1  DEFAULTER=State_1
	(( 0.5 0.5 )	%  CREDITCARD=State_2  DEFAULTER=State_0
	 ( 0.5 0.5 )));	%  CREDITCARD=State_2  DEFAULTER=State_1
}

potential (MONTHLYBALANCE | MONTHLYBALANCE_TClone BALANCE_TClone DEFAULTER)
{
    data
     = (((( 0.5 0.5 )	%  MONTHLYBALANCE_TClone=State_0  BALANCE_TClone=State_0  DEFAULTER=State_0
	  ( 0.5 0.5 ))	%  MONTHLYBALANCE_TClone=State_0  BALANCE_TClone=State_0  DEFAULTER=State_1
	 (( 0.5 0.5 )	%  MONTHLYBALANCE_TClone=State_0  BALANCE_TClone=State_1  DEFAULTER=State_0
	  ( 0.5 0.5 )))	%  MONTHLYBALANCE_TClone=State_0  BALANCE_TClone=State_1  DEFAULTER=State_1
	((( 0.5 0.5 )	%  MONTHLYBALANCE_TClone=State_1  BALANCE_TClone=State_0  DEFAULTER=State_0
	  ( 0.5 0.5 ))	%  MONTHLYBALANCE_TClone=State_1  BALANCE_TClone=State_0  DEFAULTER=State_1
	 (( 0.5 0.5 )	%  MONTHLYBALANCE_TClone=State_1  BALANCE_TClone=State_1  DEFAULTER=State_0
	  ( 0.5 0.5 ))));	%  MONTHLYBALANCE_TClone=State_1  BALANCE_TClone=State_1  DEFAULTER=State_1
}

potential (MONTHLYBALANCE_TClone)
{
    data = ( 0.5 0.5 );
}
