net
{
    node_size = (0 0);
}

node A
{
    label = "A";
    states = ("State_0" "State_1");
}

node A_TClone
{
    label = "A_TClone";
    states = ("State_0" "State_1");
}

node B
{
    label = "B";
    states = ("State_0" "State_1" "State_2");
}

node B_TClone
{
    label = "B_TClone";
    states = ("State_0" "State_1" "State_2");
}

node C
{
    label = "C";
    states = ("State_0" "State_1");
}

node D
{
    label = "D";
    states = ("State_0" "State_1");
}

node E
{
    label = "E";
    states = ("State_0" "State_1");
}

node E_TClone
{
    label = "E_TClone";
    states = ("State_0" "State_1");
}

node G
{
    label = "G";
    states = ("State_0" "State_1");
}

node G_TClone
{
    label = "G_TClone";
    states = ("State_0" "State_1");
}

potential (A | A_TClone)
{
    data
     = (( 0.5 0.5 )	%  A_TClone=State_0
	( 0.5 0.5 ));	%  A_TClone=State_1
}

potential (A_TClone)
{
    data = ( 0.5 0.5 );
}

potential (B | B_TClone A)
{
    data
     = ((( 0.333333 0.333333 0.333333 )	%  B_TClone=State_0  A=State_0
	 ( 0.333333 0.333333 0.333333 ))	%  B_TClone=State_0  A=State_1
	(( 0.333333 0.333333 0.333333 )	%  B_TClone=State_1  A=State_0
	 ( 0.333333 0.333333 0.333333 ))	%  B_TClone=State_1  A=State_1
	(( 0.333333 0.333333 0.333333 )	%  B_TClone=State_2  A=State_0
	 ( 0.333333 0.333333 0.333333 )));	%  B_TClone=State_2  A=State_1
}

potential (B_TClone)
{
    data = ( 0.333333 0.333333 0.333333 );
}

potential (C | A)
{
    data
     = (( 0.5 0.5 )	%  A=State_0
	( 0.5 0.5 ));	%  A=State_1
}

potential (D | A)
{
    data
     = (( 0.5 0.5 )	%  A=State_0
	( 0.5 0.5 ));	%  A=State_1
}

potential (E | E_TClone A)
{
    data
     = ((( 0.5 0.5 )	%  E_TClone=State_0  A=State_0
	 ( 0.5 0.5 ))	%  E_TClone=State_0  A=State_1
	(( 0.5 0.5 )	%  E_TClone=State_1  A=State_0
	 ( 0.5 0.5 )));	%  E_TClone=State_1  A=State_1
}

potential (E_TClone)
{
    data = ( 0.5 0.5 );
}

potential (G | G_TClone A)
{
    data
     = ((( 0.5 0.5 )	%  G_TClone=State_0  A=State_0
	 ( 0.5 0.5 ))	%  G_TClone=State_0  A=State_1
	(( 0.5 0.5 )	%  G_TClone=State_1  A=State_0
	 ( 0.5 0.5 )));	%  G_TClone=State_1  A=State_1
}

potential (G_TClone)
{
    data = ( 0.5 0.5 );
}
