net
{
    node_size = (0 0);
}

node DiscreteVar0
{
    label = "DiscreteVar0";
    states = ("0.0" "1.0");
}

continuous node GaussianVar0
{
}

continuous node GaussianVar1
{
}

node ClassVar
{
    label = "ClassVar";
    states = ("0.0" "1.0");
}

potential (DiscreteVar0 | ClassVar)
{
    data
     = (( 0.752408 0.247592 )	%  ClassVar=0.0
	( 0.536612 0.463388 ));	%  ClassVar=1.0
}

potential (GaussianVar0 | ClassVar)
{
    data
     = ( normal ( 9.84575, 0.235409 )	%  ClassVar=0.0
	 normal ( -16.8341, 1.17688 ) );	%  ClassVar=1.0
}

potential (GaussianVar1 | ClassVar)
{
    data
     = ( normal ( -3.90167, 0.0608124 )	%  ClassVar=0.0
	 normal ( -6.43389, 0.0151876 ) );	%  ClassVar=1.0
}

potential (ClassVar)
{
    data = ( 0.361785 0.638215 );
}
