net
{
    node_size = (0 0);
}

continuous node GaussianVar0
{
}

continuous node GaussianVar1
{
}

continuous node GaussianVar2
{
}

continuous node GaussianVar3
{
}

continuous node GaussianVar4
{
}

continuous node gaussianHiddenVar0
{
}

continuous node gaussianHiddenVar1
{
}

continuous node GaussianVar0_Interface
{
}

continuous node GaussianVar1_Interface
{
}

continuous node GaussianVar2_Interface
{
}

continuous node GaussianVar3_Interface
{
}

continuous node GaussianVar4_Interface
{
}

continuous node gaussianHiddenVar0_Interface
{
}

continuous node gaussianHiddenVar1_Interface
{
}

potential (GaussianVar0 | gaussianHiddenVar0 gaussianHiddenVar1)
{
    data = normal ( 2.77387 + 0.107973 * gaussianHiddenVar0 + 0.544378 * gaussianHiddenVar1, 0.292278 );
}

potential (GaussianVar1 | gaussianHiddenVar0 gaussianHiddenVar1)
{
    data = normal ( 0.274915 - 0.00298452 * gaussianHiddenVar0 - 0.0681129 * gaussianHiddenVar1, 2.01982 );
}

potential (GaussianVar2 | gaussianHiddenVar0 gaussianHiddenVar1)
{
    data = normal ( -6.08073 - 0.336983 * gaussianHiddenVar0 - 1.31461 * gaussianHiddenVar1, 0.37314 );
}

potential (GaussianVar3 | gaussianHiddenVar0 gaussianHiddenVar1)
{
    data = normal ( 1.79624 + 0.700508 * gaussianHiddenVar0 - 0.765376 * gaussianHiddenVar1, 0.375239 );
}

potential (GaussianVar4 | gaussianHiddenVar0 gaussianHiddenVar1)
{
    data = normal ( -2.75671 - 0.299376 * gaussianHiddenVar0 - 0.478209 * gaussianHiddenVar1, 2.54542 );
}

potential (gaussianHiddenVar0 | gaussianHiddenVar0_Interface)
{
    data = normal ( -8.25622 - 0.957658 * gaussianHiddenVar0_Interface, 25.8989 );
}

potential (gaussianHiddenVar1 | gaussianHiddenVar1_Interface)
{
    data = normal ( -4.66215 - 0.796407 * gaussianHiddenVar1_Interface, 2.59826 );
}

potential (GaussianVar0_Interface)
{
    data = normal ( 0, 1 );
}

potential (GaussianVar1_Interface)
{
    data = normal ( 0, 1 );
}

potential (GaussianVar2_Interface)
{
    data = normal ( 0, 1 );
}

potential (GaussianVar3_Interface)
{
    data = normal ( 0, 1 );
}

potential (GaussianVar4_Interface)
{
    data = normal ( 0, 1 );
}

potential (gaussianHiddenVar0_Interface)
{
    data = normal ( 0, 1 );
}

potential (gaussianHiddenVar1_Interface)
{
    data = normal ( 0, 1 );
}
