net
{
    node_size = (0 0);
}

continuous node GaussianVar0
{
}

continuous node GaussianVar1
{
}

continuous node GaussianVar2
{
}

continuous node GaussianVar3
{
}

continuous node GaussianVar4
{
}

continuous node LatentVar0
{
}

continuous node LatentVar1
{
}

potential (GaussianVar0 | LatentVar0 LatentVar1)
{
    data = normal ( 1.11445 - 0.0187413 * LatentVar0 + 2.06014E-05 * LatentVar1, 5.73051 );
}

potential (GaussianVar1 | LatentVar0 LatentVar1)
{
    data = normal ( 0.623838 - 0.00289225 * LatentVar0 - 9.28404E-06 * LatentVar1, 3.22869 );
}

potential (GaussianVar2 | LatentVar0 LatentVar1)
{
    data = normal ( -1.36952 + 0.0519106 * LatentVar0 - 8.07367E-05 * LatentVar1, 25.2359 );
}

potential (GaussianVar3 | LatentVar0 LatentVar1)
{
    data = normal ( 0.591857 - 0.116167 * LatentVar0 + 0.000220572 * LatentVar1, 169.762 );
}

potential (GaussianVar4 | LatentVar0 LatentVar1)
{
    data = normal ( -0.0973336 + 0.0462837 * LatentVar0 - 8.48678E-05 * LatentVar1, 22.1741 );
}

potential (LatentVar0)
{
    data = normal ( 0.27681, 294.618 );
}

potential (LatentVar1 | LatentVar0)
{
    data = normal ( 0.535903 - 0.000863346 * LatentVar0, 2710.35 );
}
