net
{
    node_size = (0 0);
}

continuous node Income
{
}

continuous node Expenses
{
}

continuous node Balance
{
}

continuous node TotalCredit
{
}

continuous node LatentVar0
{
}

continuous node LatentVar1
{
}

continuous node LatentVar2
{
}

potential (Income | LatentVar0 LatentVar1 LatentVar2)
{
    data = normal ( 0.940033 - 0.00685441 * LatentVar0 + 0.275308 * LatentVar1 + 0.168928 * LatentVar2, 1.07002 );
}

potential (Expenses | LatentVar0 LatentVar1 LatentVar2)
{
    data = normal ( 0.0754157 - 0.0147043 * LatentVar0 + 0.928149 * LatentVar1 + 0.0679322 * LatentVar2, 1.34244 );
}

potential (Balance | LatentVar0 LatentVar1 LatentVar2)
{
    data = normal ( -2.36725 + 0.425077 * LatentVar0 + 1.66882 * LatentVar1 - 0.296906 * LatentVar2, 4.66131 );
}

potential (TotalCredit | LatentVar0 LatentVar1 LatentVar2)
{
    data = normal ( 0.453984 - 0.89451 * LatentVar0 + 0.141832 * LatentVar1 + 0.196104 * LatentVar2, 887.331 );
}

potential (LatentVar0)
{
    data = normal ( -0.00339091, 0.244397 );
}

potential (LatentVar1 | LatentVar0)
{
    data = normal ( -0.0543007 + 0.302348 * LatentVar0, 2.25704 );
}

potential (LatentVar2 | LatentVar0 LatentVar1)
{
    data = normal ( -0.0549862 - 0.804233 * LatentVar0 - 0.458567 * LatentVar1, 27.5042 );
}
