net
{
    node_size = (0 0);
}

continuous node GaussianVar0
{
}

continuous node GaussianVar1
{
}

continuous node GaussianVar2
{
}

continuous node GaussianVar3
{
}

continuous node GaussianVar4
{
}

node HiddenVar
{
    label = "HiddenVar";
    states = ("0.0" "1.0");
}

potential (GaussianVar0 | HiddenVar)
{
    data
     = ( normal ( 1.76273, 27.814 )	%  HiddenVar=0.0
	 normal ( 0.971021, 0.915967 ) );	%  HiddenVar=1.0
}

potential (GaussianVar1 | HiddenVar)
{
    data
     = ( normal ( 2.3879, 7.64379 )	%  HiddenVar=0.0
	 normal ( 0.239324, 1.4403 ) );	%  HiddenVar=1.0
}

potential (GaussianVar2 | HiddenVar)
{
    data
     = ( normal ( -1.07551, 110.923 )	%  HiddenVar=0.0
	 normal ( -1.42728, 7.42679 ) );	%  HiddenVar=1.0
}

potential (GaussianVar3 | HiddenVar)
{
    data
     = ( normal ( -1.04169, 514.845 )	%  HiddenVar=0.0
	 normal ( 0.93387, 98.2382 ) );	%  HiddenVar=1.0
}

potential (GaussianVar4 | HiddenVar)
{
    data
     = ( normal ( 0.640823, 82.8372 )	%  HiddenVar=0.0
	 normal ( -0.252634, 9.51256 ) );	%  HiddenVar=1.0
}

potential (HiddenVar)
{
    data = ( 0.179025 0.820975 );
}
