net
{
    node_size = (0 0);
}

continuous node GaussianVar0
{
}

continuous node GaussianVar1
{
}

continuous node GaussianVar2
{
}

continuous node GaussianVar3
{
}

continuous node GaussianVar4
{
}

continuous node LatentVar0
{
}

continuous node LatentVar1
{
}

potential (GaussianVar0 | LatentVar0 LatentVar1)
{
    data = normal ( 1.11899 - 0.0481069 * LatentVar0 - 0.0191216 * LatentVar1, 0.583972 );
}

potential (GaussianVar1 | LatentVar0 LatentVar1)
{
    data = normal ( 0.623319 + 0.00709757 * LatentVar0 - 0.00683268 * LatentVar1, 2.72429 );
}

potential (GaussianVar2 | LatentVar0 LatentVar1)
{
    data = normal ( -1.38936 + 0.218056 * LatentVar0 + 0.0230325 * LatentVar1, 1.99387 );
}

potential (GaussianVar3 | LatentVar0 LatentVar1)
{
    data = normal ( 0.650143 - 0.65477 * LatentVar0 + 0.0249217 * LatentVar1, 33.8968 );
}

potential (GaussianVar4 | LatentVar0 LatentVar1)
{
    data = normal ( -0.121025 + 0.262579 * LatentVar0 - 0.00459875 * LatentVar1, 0.462044 );
}

potential (LatentVar0)
{
    data = normal ( 0.108515, 328.555 );
}

potential (LatentVar1 | LatentVar0)
{
    data = normal ( -0.0227767 + 0.761172 * LatentVar0, 10801.2 );
}
