net
{
    node_size = (0 0);
}

continuous node GaussianVar0
{
}

continuous node GaussianVar1
{
}

continuous node GaussianVar2
{
}

continuous node GaussianVar3
{
}

continuous node GaussianVar4
{
}

continuous node LatentVar0
{
}

continuous node LatentVar1
{
}

potential (GaussianVar0 | LatentVar0 LatentVar1)
{
    data = normal ( 1.11862 - 0.0496053 * LatentVar0 - 0.017682 * LatentVar1, 0.575063 );
}

potential (GaussianVar1 | LatentVar0 LatentVar1)
{
    data = normal ( 0.623219 + 0.00666926 * LatentVar0 - 0.00631416 * LatentVar1, 2.72515 );
}

potential (GaussianVar2 | LatentVar0 LatentVar1)
{
    data = normal ( -1.38873 + 0.220853 * LatentVar0 + 0.0212538 * LatentVar1, 1.97776 );
}

potential (GaussianVar3 | LatentVar0 LatentVar1)
{
    data = normal ( 0.649765 - 0.656773 * LatentVar0 + 0.023105 * LatentVar1, 34.1519 );
}

potential (GaussianVar4 | LatentVar0 LatentVar1)
{
    data = normal ( -0.120831 + 0.264121 * LatentVar0 - 0.00434 * LatentVar1, 0.432712 );
}

potential (LatentVar0)
{
    data = normal ( 0.106762, 324.669 );
}

potential (LatentVar1 | LatentVar0)
{
    data = normal ( -0.043344 + 0.772592 * LatentVar0, 12632 );
}
